svm_type c_svc
kernel_type linear
nr_class 5
total_sv 18
rho 0.67776276753990539 0.16351855397533632 0.60616895944556104 -0.026790817184928428 -0.45667608848165064 -0.39209494416946272 -0.57378266990170979 0.63963425756580872 0.10039191151754591 -0.23806533609597094
label 1 3 2 0 4
nr_sv 4 3 3 5 3
SV
0.029371697545911915 0 0.0095939953487116612 0.037594782080113402 1:1.9492235 2:-0.39278433 3:-0.099203414 4:-0.12778006 5:-0.37298131 6:-0.58348608 7:-0.21673201 8:2.9162816 9:1.7693095 10:-0.14625415 11:0.18765316 12:0.11954155 13:-0.22601825 14:-0.76322054 15:0.020260195 16:2.5683011 17:-0.56400263 18:-0.81848048 19:-0.93764796 20:0.27154941 21:-0.73507367 22:-1.1014257 23:-0.73841594 24:1.3022002 25:0.82068425 26:-0.4898068 27:-0.37780657 28:0.35930083 29:-0.051539093 30:-0.66975737 31:0.47873403 32:1.3385978 
0.001070554526556175 0 0.0018058430608329412 0 1:2.0269163 2:-0.41613498 3:-0.1938566 4:-0.091913206 5:-0.42700826 6:-0.5879123 7:-0.53970372 8:2.1937519 9:1.8227265 10:-0.17536947 11:0.041279964 12:0.16844826 13:-0.29501805 14:-0.78702158 15:-0.6245972 16:2.1266411 17:-0.63409911 18:-0.85627853 19:-1.1206832 20:0.37033628 21:-0.73483411 22:-1.1377428 23:-1.1945224 24:0.9385376 25:2.9761985 26:0.20372136 27:0.48333715 28:0.26599942 29:-0.11156866 30:-0.7940534 31:-0.58821089 32:2.4395821 
0.071806696330761172 0 0.020454729085761909 0 1:-1.058319 2:-0.93809716 3:-0.59812103 4:-0.30987109 5:-0.89080201 6:-0.59217258 7:-0.61820844 8:0.016187681 9:-1.2702789 10:-1.2076732 11:-1.0436159 12:-0.15482439 13:-1.0274213 14:-0.81170368 15:-0.89911277 16:0.27769956 17:-1.5884232 18:-1.4260134 19:-1.8666475 20:0.094112197 21:-1.1657988 22:-1.1726472 23:-1.3550003 24:0.99597224 25:-0.91465587 26:-1.0064124 27:-1.0671966 28:-0.049121348 29:-0.93024431 30:-0.75616774 31:-1.0547901 32:0.36935948 
0 0.11716245647499339 0.049817933579324139 0.039509088599797501 1:-1.058191 2:-0.95426221 3:-0.60069223 4:-0.37691901 5:-0.94114112 6:-0.59552342 7:-0.62342392 8:-0.16003766 9:-1.2693412 10:-1.287931 11:-1.0639132 12:-0.27041114 13:-1.1330743 14:-0.83271078 15:-0.92322454 16:0.048137696 17:-1.8536956 18:-1.5659251 19:-2.021746 20:-0.085884148 21:-1.3934304 22:-1.2876212 23:-1.4839084 24:0.72448452 25:-1.1372497 26:-1.1554041 27:-1.1635405 28:-0.47852909 29:-1.2053418 30:-0.88567807 31:-1.2329781 32:-0.10916828 
-0.10224894840322925 0.03912995261403393 0.29431081699856582 0.11994720640322978 1:-0.63203084 2:-0.023154628 3:-0.49227724 4:-0.52252826 5:-0.80209072 6:-0.18314324 7:-0.48928233 8:-0.067738651 9:-0.58281321 10:0.25777166 11:-0.58838951 12:-0.56659518 13:-0.85932864 14:0.13857409 15:-0.49227568 16:0.17175505 17:-0.15793547 18:0.64197094 19:-0.2205183 20:-0.74163359 21:-0.59348166 22:0.63215282 23:-0.17169185 24:0.79381793 25:-0.23940155 26:0.10629732 27:-0.56650349 28:-0.43445443 29:-0.73733494 30:0.17004863 31:-0.26581424 32:0.089589125 
-0 0.022315449892102174 0.36008789434422972 0 1:-0.66965889 2:0.55648691 3:-0.088659697 4:-0.60923888 5:0.25473127 6:0.15480001 7:-0.38130958 8:-0.60480004 9:-0.63509238 10:0.7563855 11:0.20309398 12:-0.79543524 13:0.45419677 14:0.55499816 15:-0.26061806 16:-0.73599534 17:-0.30090005 18:0.82542632 19:0.65201547 20:-0.99182907 21:0.90767747 22:0.86219715 23:0.11754681 24:-0.7278664 25:-0.63551174 26:0.44141993 27:-0.18918903 28:-0.95377818 29:-0.34907392 30:0.34981649 31:-0.21597971 32:-0.85272673 
-0 0 0.34031433932979571 0 1:-0.57812015 2:0.73393919 3:-0.067168171 4:-0.58410845 5:0.34311267 6:0.24582185 7:-0.35381883 8:-0.56100076 9:-0.50995362 10:0.88928482 11:0.23410012 12:-0.72266507 13:0.53717606 14:0.65039138 15:-0.20899326 16:-0.63467435 17:-0.19788585 18:0.88521704 19:0.67491562 20:-0.80641591 21:0.96777302 22:0.9147008 23:0.19379756 24:-0.54255112 25:-0.38342815 26:0.4132192 27:0.37167218 28:-0.77625316 29:0.34143735 30:0.52725108 31:-0.15895793 32:-0.47712528 
-0 -0.026467129241397755 0.031432757193576445 0.042047161381492941 1:0.095679563 2:-0.89722933 3:-0.36666928 4:1.4688031 5:0.74360961 6:-0.57828384 7:-0.46957607 8:-0.56089151 9:0.26256449 10:-1.0535839 11:-0.27682775 12:1.64112 13:0.88661105 14:-0.73711599 15:-0.44567272 16:-0.63444069 17:0.59205821 18:-0.86402597 19:0.12094591 20:1.5840384 21:0.75104343 22:-0.90252679 23:-0.045597225 24:-1.0053751 25:-0.48147956 26:-0.93308203 27:-0.21826053 28:1.2993578 29:0.4634542 30:-0.74497146 31:-0.63479326 32:-0.67164056 
-0 -0.001928040529642775 0 0 1:0.15119072 2:-0.89768377 3:-0.35308796 4:1.5727894 5:0.85051303 6:-0.57859427 7:-0.46500397 8:-0.5503959 9:0.31792266 10:-1.0550485 11:-0.24846265 12:1.7158362 13:0.97370419 14:-0.73868291 15:-0.4351923 16:-0.61146558 17:0.61986584 18:-0.85294637 19:0.16567292 20:1.6158253 21:0.79467043 22:-0.87305486 23:-0.037286075 24:-0.97351413 25:0.78486846 26:-0.79317459 27:0.11477527 28:1.9334198 29:1.2637877 30:-0.66071047 31:-0.024032949 32:-0.27301913 
-0.11716245647499339 -0.03305023273509558 0.065967209651065395 0.010751130822523063 1:-1.1452732 2:-0.95403936 3:-0.55050057 4:0.31641458 5:-0.49353529 6:-0.58809832 7:-0.62160158 8:-0.72319548 9:-1.450077 10:-1.2868327 11:-0.78986693 12:0.65046606 13:-0.38329594 14:-0.78804841 15:-0.91468738 16:-1.080192 17:-1.8047204 18:-1.5962466 19:-0.69063186 20:0.83264458 21:-0.50984631 22:-0.96650789 23:-1.4113308 24:-1.9416379 25:-1.5024068 26:-1.0773354 27:-0.86271761 28:0.38510219 29:-0.37083429 30:-0.76772444 31:-1.0763286 32:-1.0797181 
-0 -0.082516099426105452 -0 0.0016545002874439165 1:0.026369286 2:1.1716927 3:2.6888042 4:-0.47708233 5:1.9828141 6:1.3832725 7:-0.33556505 8:-0.61691182 9:0.19196716 10:1.1903155 11:2.5160221 12:-0.46554953 13:1.7851557 14:1.56986 15:-0.17593784 16:-0.76581852 17:0.76763309 18:1.1153932 19:1.7702071 20:-0.25874554 21:1.6221044 22:1.365045 23:0.38667896 24:-0.82672455 25:-0.56666179 26:0.25564327 27:1.0773591 28:-0.67640606 29:0.6411783 30:0.79063192 31:-0.37748592 32:-0.7883047 
-0 -0.28163470151205983 -0 0 1:-0.17618133 2:0.7010711 3:0.60446748 4:-0.47579073 5:0.16436 6:1.058883 7:-0.40046108 8:-0.51055233 9:-0.024093153 10:0.86524019 11:1.0049008 12:-0.46281027 13:0.36681534 14:1.3430308 15:-0.29807764 16:-0.52804271 17:0.63408624 18:1.023691 19:1.0858736 20:-0.13273723 21:0.72825859 22:1.3191048 23:0.27150886 24:-0.25027657 25:0.49669305 26:1.285576 27:1.2927714 28:-0.31435907 29:0.63120404 30:1.8500003 31:0.19386656 32:-0.39959909 
-0 -0 -0 0.03913190135891103 1:-0.67731139 2:-0.37898281 3:-0.071624649 4:-0.58260604 5:-0.48107995 6:-0.06769521 7:-0.54201158 8:-0.54764345 9:-0.64589764 10:-0.12918119 11:0.22777447 12:-0.71847796 13:-0.36645438 14:0.29476366 15:-0.63116829 16:-0.60552047 17:-0.074491765 18:0.44969756 19:0.61329234 20:-0.63496258 21:0.13848226 22:0.82946311 23:-0.31119494 24:-0.25830327 25:-0.63960371 26:0.055760421 27:0.27816034 28:-0.80940911 29:-0.45500219 30:0.56624352 31:-0.6311715 32:-0.70140348 
-0.081672501074630657 -0.52841788438676385 -0.028372031306540924 0.055530390624882721 1:-0.88919731 2:-0.56631186 3:-0.32902469 4:-0.62443065 5:-0.79089942 6:-0.29999102 7:-0.57046483 8:-0.61644182 9:-0.96809789 10:-0.38060501 11:-0.19993952 12:-0.84294244 13:-0.83952758 14:-0.042652463 15:-0.7183139 16:-0.76461807 17:-0.50787138 18:0.26544436 19:0.19214945 20:-0.97717939 21:-0.39851506 22:0.57788553 23:-0.47531278 24:-0.50985602 25:-0.79131858 26:-0.13798506 27:-0.24163707 28:-0.86234993 29:-0.82813071 30:0.12326524 31:-0.75168384 32:-0.85979779 
-0 -0.10214436534766219 -0.06902793553810091 0 1:-1.0431388 2:-0.1743313 3:-0.31050667 4:-0.30998271 5:-0.2946501 6:0.14245085 7:-0.5524907 8:-0.66795587 9:-1.2407387 10:0.10398103 11:-0.16387089 12:-0.15500662 13:-0.1297368 14:0.54162433 15:-0.66204058 16:-0.90261959 17:-0.95217733 18:0.58987343 19:0.084622632 20:0.48541724 21:0.28134465 22:1.0749001 23:-0.26531888 24:-0.69820097 25:-1.1672783 26:0.094835282 27:-0.0026847627 28:-0.12853972 29:0.10661498 30:0.36049949 31:-0.58718409 32:-1.0251503 
-0.064714280385274853 -0.076276185361119173 -0.0011015928987420911 -0.031643056118952781 1:0.18715896 2:-0.64736885 3:-0.53007334 4:-0.63332892 5:-1.0171502 6:-0.5835748 7:0.59276156 8:0.071319687 9:0.35339799 10:-0.50699282 11:-0.71176032 12:-0.87233414 13:-1.3125533 14:-0.76368071 15:0.95153588 16:0.34441998 17:1.0700312 18:0.10646004 19:-0.4349608 20:-1.3335623 21:-1.8234821 22:-0.87186585 23:1.1438686 24:0.95071195 25:-0.22618997 26:-0.77680636 27:-1.1879874 28:-1.0307466 29:-1.3977571 30:-0.72170903 31:0.3635095 32:-0.48097663 
-0 -0.031513913754931684 -0.051696699305273909 -0.064673736152284902 1:0.58102323 2:-0.39204267 3:-0.3721532 4:-0.60661739 5:-0.38233178 6:-0.54662528 7:1.2646798 8:-0.54686133 9:0.71813996 10:-0.14532576 11:-0.28848985 12:-0.78752871 13:-0.23780426 14:-0.60709852 15:1.5040342 16:-0.60382925 17:1.049851 18:0.30337402 19:0.2830431 20:-1.2814559 21:0.28876921 22:-0.2974721 23:1.3654802 24:-0.51842408 25:-0.8008703 26:-0.81196114 27:0.079366394 28:-0.65436603 29:-0.27858295 30:-0.7859048 31:0.1187318 32:-0.43464489 
-0.012389590294636059 -0.012157107287178922 -0 -0 1:0.4651494 2:-0.21386404 3:-0.41573423 4:-0.52183532 5:-0.64681778 6:-0.49727786 7:1.8667239 8:0.64297563 9:0.61472043 10:0.06146923 11:-0.38631713 12:-0.56497877 13:-0.60341224 14:-0.45399163 15:1.9213051 16:0.94146413 17:1.1351199 18:0.43873267 19:0.18090079 20:-0.59624408 21:-0.27604912 22:0.033655646 23:1.7558517 24:1.528119 25:-0.58446246 26:-0.75424271 27:-0.074904464 28:-0.48489071 29:-0.31998179 30:-0.8024844 31:0.12179555 32:1.1230995 
