svm_type c_svc
kernel_type linear
nr_class 2
total_sv 2
rho -0.4412196322807298
label 1 0
nr_sv 1 1
SV
0.11319287817866155 1:-0.35254486 2:-0.54416012 3:-0.38079307 4:-0.018583631 5:-0.36711313 6:-0.38071099 7:-0.37947977 8:0.29882393 9:-0.098315465 10:-0.56122046 11:-0.46516732 12:0.40763087 13:-0.092320803 14:-0.43741022 15:-0.39516684 16:0.77891421 17:0.21535776 18:-0.24704862 19:-0.12033457 20:0.87779958 21:0.33325869 22:-0.236651 23:-0.068662368 24:1.2172653 25:0.11837051 26:-0.42286931 27:-0.35234146 28:0.31645091 29:-0.032268369 30:-0.40607269 31:-0.3386718 32:0.71151177 
-0.11319287817866155 1:-0.64164169 2:-0.57066907 3:-0.40068592 4:-0.45482904 5:-0.6509205 6:-0.39355363 7:-0.41843611 8:-0.45165149 9:-0.63833809 10:-0.73219197 11:-0.67003617 12:-0.66773433 13:-0.8387388 14:-0.52499514 15:-0.59359691 16:-0.48597665 17:-0.6114545 18:-0.88562649 19:-0.93326679 20:-0.9162953 21:-0.9611324 22:-0.7737551 23:-0.77452291 24:0.023020648 25:-0.48805639 26:-0.7970442 27:-0.77308008 28:-0.7323279 29:-0.87985198 30:-0.58710036 31:-0.65793521 32:-0.5245771 
